{
    "levels": [
        {
            "inLvls": 7,
            "outLvls": 7,
            "biases": [
                -0.1291429704415981,
                -0.023621523773771726,
                -0.04959623806773827,
                0.08997470018911052,
                0.1346140175277723,
                -0.17713463857378797,
                0.060634549119711
            ],
            "inputs": [
                0.6012417403465891,
                0.44784702426899003,
                0,
                0.050212831296734484,
                0,
                0,
                0
            ],
            "outputs": [
                0,
                1,
                0,
                1,
                1,
                1,
                1
            ],
            "weights": [
                [
                    -0.1040971831318988,
                    -0.025823654066729176,
                    -0.36753995701298475,
                    0.0705444044147706,
                    -0.11559517187475662,
                    0.230719838719747,
                    0.21844659587983417
                ],
                [
                    -0.026289387438007343,
                    0.1918904778001019,
                    -0.07466271680284664,
                    -0.04655213433293957,
                    -0.03263921449344641,
                    0.08151246822440783,
                    0.06682916182486767
                ],
                [
                    0.025877518537602763,
                    0.06835779965256035,
                    -0.039745515374374964,
                    0.05010075775652838,
                    -0.04025660951723789,
                    0.1441840796635583,
                    -0.020815144914467485
                ],
                [
                    -0.08828105973527901,
                    -0.06972010905756466,
                    0.13659433945477495,
                    0.11366067885620851,
                    0.10152610477037972,
                    0.046301202836485054,
                    -0.21078393109397922
                ],
                [
                    -0.06265833411754902,
                    0.0011799297582550479,
                    0.2020325743659546,
                    -0.03175021425822078,
                    -0.036325823155723753,
                    0.12481743606274362,
                    -0.0006016365055086534
                ],
                [
                    0.029076154641268517,
                    -0.17916795007730313,
                    -0.04583192276672718,
                    0.14671809175241252,
                    0.10735272485624944,
                    -0.09193428690653636,
                    -0.2820794496049314
                ],
                [
                    0.15215089255735348,
                    0.2379419603769732,
                    0.001008257883184446,
                    0.13000703747879772,
                    -0.03161758762024523,
                    -0.13914626700499455,
                    0.0608192197705282
                ]
            ]
        },
        {
            "inLvls": 7,
            "outLvls": 4,
            "biases": [
                0.08573204785281947,
                0.06022561897150974,
                -0.15685623647854635,
                0.21888941454491287
            ],
            "inputs": [
                0,
                1,
                0,
                1,
                1,
                1,
                1
            ],
            "outputs": [
                0,
                0,
                0,
                1
            ],
            "weights": [
                [
                    0.20074470376445502,
                    -0.07216975734024002,
                    -0.010617019988546614,
                    -0.14388246125881246
                ],
                [
                    0.06912529039455678,
                    -0.019639422934786988,
                    0.08063007672853634,
                    0.0380753968208483
                ],
                [
                    0.16389674641341045,
                    -0.09768099784972344,
                    0.03488611904775912,
                    -0.16199772975132137
                ],
                [
                    0.27987928314281096,
                    0.15504933546695115,
                    0.1924331785929901,
                    -0.13063035357514638
                ],
                [
                    0.03563490377787932,
                    -0.2889870835922958,
                    0.07991675945240027,
                    -0.1839668490553468
                ],
                [
                    -0.3990323546217604,
                    0.06789230159483951,
                    -0.23477312967717587,
                    0.029256443545224213
                ],
                [
                    -0.10186618552241816,
                    -0.23567567736973102,
                    -0.08344100239392019,
                    0.23204017292691015
                ]
            ]
        }
    ]
}